digraph Tree {
node [shape=box] ;
0 [label="X[3] <= 3.5\nmse = 0.01\nsamples = 10591\nvalue = 0.06"] ;
1 [label="X[3] <= 0.5\nmse = 0.009\nsamples = 8471\nvalue = 0.042"] ;
0 -> 1 [labeldistance=2.5, labelangle=45, headlabel="True"] ;
2 [label="X[2] <= 3.5\nmse = 0.003\nsamples = 2102\nvalue = 0.1"] ;
1 -> 2 ;
3 [label="X[2] <= 0.5\nmse = 0.003\nsamples = 1369\nvalue = 0.117"] ;
2 -> 3 ;
4 [label="mse = 0.001\nsamples = 364\nvalue = 0.059"] ;
3 -> 4 ;
5 [label="mse = 0.003\nsamples = 1005\nvalue = 0.139"] ;
3 -> 5 ;
6 [label="X[1] <= 3.5\nmse = 0.001\nsamples = 733\nvalue = 0.067"] ;
2 -> 6 ;
7 [label="mse = 0.001\nsamples = 415\nvalue = 0.055"] ;
6 -> 7 ;
8 [label="mse = 0.0\nsamples = 318\nvalue = 0.083"] ;
6 -> 8 ;
9 [label="X[1] <= 1.5\nmse = 0.01\nsamples = 6369\nvalue = 0.023"] ;
1 -> 9 ;
10 [label="X[3] <= 1.5\nmse = 0.031\nsamples = 1793\nvalue = 0.062"] ;
9 -> 10 ;
11 [label="mse = 0.079\nsamples = 573\nvalue = 0.156"] ;
10 -> 11 ;
12 [label="mse = 0.001\nsamples = 1220\nvalue = 0.017"] ;
10 -> 12 ;
13 [label="X[4] <= 9.5\nmse = 0.001\nsamples = 4576\nvalue = 0.008"] ;
9 -> 13 ;
14 [label="mse = 0.001\nsamples = 2033\nvalue = 0.013"] ;
13 -> 14 ;
15 [label="mse = 0.0\nsamples = 2543\nvalue = 0.004"] ;
13 -> 15 ;
16 [label="X[1] <= 3.5\nmse = 0.01\nsamples = 2120\nvalue = 0.131"] ;
0 -> 16 [labeldistance=2.5, labelangle=-45, headlabel="False"] ;
17 [label="X[1] <= 1.5\nmse = 0.014\nsamples = 1203\nvalue = 0.167"] ;
16 -> 17 ;
18 [label="X[2] <= 4.5\nmse = 0.001\nsamples = 608\nvalue = 0.09"] ;
17 -> 18 ;
19 [label="mse = 0.001\nsamples = 512\nvalue = 0.084"] ;
18 -> 19 ;
20 [label="mse = 0.0\nsamples = 96\nvalue = 0.117"] ;
18 -> 20 ;
21 [label="X[2] <= 4.5\nmse = 0.015\nsamples = 595\nvalue = 0.244"] ;
17 -> 21 ;
22 [label="mse = 0.005\nsamples = 506\nvalue = 0.203"] ;
21 -> 22 ;
23 [label="mse = 0.0\nsamples = 89\nvalue = 0.496"] ;
21 -> 23 ;
24 [label="X[2] <= 4.5\nmse = 0.0\nsamples = 917\nvalue = 0.083"] ;
16 -> 24 ;
25 [label="X[2] <= 1.5\nmse = 0.0\nsamples = 763\nvalue = 0.076"] ;
24 -> 25 ;
26 [label="mse = 0.0\nsamples = 311\nvalue = 0.082"] ;
25 -> 26 ;
27 [label="mse = 0.0\nsamples = 452\nvalue = 0.072"] ;
25 -> 27 ;
28 [label="X[0] <= 12.5\nmse = 0.0\nsamples = 154\nvalue = 0.117"] ;
24 -> 28 ;
29 [label="mse = 0.0\nsamples = 126\nvalue = 0.118"] ;
28 -> 29 ;
30 [label="mse = 0.0\nsamples = 28\nvalue = 0.114"] ;
28 -> 30 ;
}