digraph Tree {
node [shape=box] ;
0 [label="X[4] <= 16.5\nmse = 0.011\nsamples = 11784\nvalue = 0.061"] ;
1 [label="X[3] <= 0.5\nmse = 0.005\nsamples = 6702\nvalue = 0.031"] ;
0 -> 1 [labeldistance=2.5, labelangle=45, headlabel="True"] ;
2 [label="X[1] <= 3.5\nmse = 0.003\nsamples = 1168\nvalue = 0.102"] ;
1 -> 2 ;
3 [label="X[1] <= 1.5\nmse = 0.002\nsamples = 672\nvalue = 0.086"] ;
2 -> 3 ;
4 [label="mse = 0.002\nsamples = 339\nvalue = 0.115"] ;
3 -> 4 ;
5 [label="mse = 0.001\nsamples = 333\nvalue = 0.053"] ;
3 -> 5 ;
6 [label="X[2] <= 3.5\nmse = 0.003\nsamples = 496\nvalue = 0.124"] ;
2 -> 6 ;
7 [label="mse = 0.004\nsamples = 327\nvalue = 0.145"] ;
6 -> 7 ;
8 [label="mse = 0.0\nsamples = 169\nvalue = 0.083"] ;
6 -> 8 ;
9 [label="X[1] <= 1.5\nmse = 0.004\nsamples = 5534\nvalue = 0.016"] ;
1 -> 9 ;
10 [label="X[3] <= 1.5\nmse = 0.011\nsamples = 1546\nvalue = 0.033"] ;
9 -> 10 ;
11 [label="mse = 0.064\nsamples = 210\nvalue = 0.128"] ;
10 -> 11 ;
12 [label="mse = 0.001\nsamples = 1336\nvalue = 0.018"] ;
10 -> 12 ;
13 [label="X[1] <= 4.5\nmse = 0.001\nsamples = 3988\nvalue = 0.009"] ;
9 -> 13 ;
14 [label="mse = 0.001\nsamples = 2379\nvalue = 0.014"] ;
13 -> 14 ;
15 [label="mse = 0.0\nsamples = 1609\nvalue = 0.002"] ;
13 -> 15 ;
16 [label="X[4] <= 25.5\nmse = 0.016\nsamples = 5082\nvalue = 0.101"] ;
0 -> 16 [labeldistance=2.5, labelangle=-45, headlabel="False"] ;
17 [label="X[2] <= 4.5\nmse = 0.008\nsamples = 3571\nvalue = 0.122"] ;
16 -> 17 ;
18 [label="X[1] <= 3.5\nmse = 0.005\nsamples = 2976\nvalue = 0.112"] ;
17 -> 18 ;
19 [label="mse = 0.006\nsamples = 1740\nvalue = 0.126"] ;
18 -> 19 ;
20 [label="mse = 0.002\nsamples = 1236\nvalue = 0.093"] ;
18 -> 20 ;
21 [label="X[4] <= 22.5\nmse = 0.023\nsamples = 595\nvalue = 0.168"] ;
17 -> 21 ;
22 [label="mse = 0.028\nsamples = 379\nvalue = 0.218"] ;
21 -> 22 ;
23 [label="mse = 0.001\nsamples = 216\nvalue = 0.078"] ;
21 -> 23 ;
24 [label="X[1] <= 1.5\nmse = 0.031\nsamples = 1511\nvalue = 0.051"] ;
16 -> 24 ;
25 [label="X[1] <= 0.5\nmse = 0.091\nsamples = 416\nvalue = 0.166"] ;
24 -> 25 ;
26 [label="mse = 0.0\nsamples = 222\nvalue = 0.001"] ;
25 -> 26 ;
27 [label="mse = 0.129\nsamples = 194\nvalue = 0.35"] ;
25 -> 27 ;
28 [label="X[2] <= 1.5\nmse = 0.001\nsamples = 1095\nvalue = 0.006"] ;
24 -> 28 ;
29 [label="mse = 0.001\nsamples = 388\nvalue = 0.018"] ;
28 -> 29 ;
30 [label="mse = -0.0\nsamples = 707\nvalue = 0.0"] ;
28 -> 30 ;
}